<?xml version="1.0"?>
<opencv_storage>
<my_svm type_id="opencv-ml-svm">
  <svm_type>C_SVC</svm_type>
  <kernel><type>RBF</type>
    <gamma>1.</gamma></kernel>
  <C>1.</C>
  <term_criteria><epsilon>1.1920928955078125e-07</epsilon>
    <iterations>1000</iterations></term_criteria>
  <var_all>3</var_all>
  <var_count>3</var_count>
  <class_count>2</class_count>
  <class_labels type_id="opencv-matrix">
    <rows>1</rows>
    <cols>2</cols>
    <dt>i</dt>
    <data>
      -1 1</data></class_labels>
  <sv_total>4</sv_total>
  <support_vectors>
    <_>
      0. 0. -8.99999976e-01</_>
    <_>
      0. 0. -1.10000002e+00</_>
    <_>
      0. 0. 8.99999976e-01</_>
    <_>
      0. 0. 1.10000002e+00</_></support_vectors>
  <decision_functions>
    <_>
      <sv_count>4</sv_count>
      <rho>0.</rho>
      <alpha>
        7.6358518661081842e-01 2.8257534911844617e-01
        -7.6358518661081842e-01 -2.8257534911844617e-01</alpha>
      <index>
        0 1 2 3</index></_></decision_functions></my_svm>
</opencv_storage>
